gru/gru_cell/kernel:0
(1, 720)
[[ 8.08840916e-02  2.88417395e-02 -3.31601083e-01 -2.95448333e-01
  -2.73713291e-01 -3.41472089e-01  5.54749183e-02 -2.38728076e-01
  -1.75282970e-01 -2.57594854e-01  1.26270890e-01 -1.15094535e-01
  -2.42078170e-01  8.30892697e-02 -1.96419388e-01 -2.82217890e-01
  -4.62815017e-02 -3.92911196e-01 -1.77960306e-01 -1.67538434e-01
  -7.21668527e-02 -3.78627896e-01  1.53459832e-01  2.53945887e-01
   5.24121933e-02  1.03023194e-01 -2.21382156e-01 -2.96321273e-01
  -2.98832923e-01 -1.19657554e-02 -5.74368499e-02 -1.82127073e-01
   2.17283294e-02 -2.84067661e-01 -2.56678984e-02 -1.56561241e-01
  -1.14940457e-01  1.74310088e-01 -4.35066134e-01 -2.23438025e-01
  -5.19762188e-02 -5.62079065e-02 -1.73900709e-01 -1.05808392e-01
  -1.97258309e-01 -1.00249685e-01 -6.96604624e-02 -9.10199881e-02
  -9.94884670e-02  1.71924084e-01 -1.22001767e-01  5.37964068e-02
  -3.56040955e-01  1.52361736e-01 -8.25544372e-02 -3.44021857e-01
  -8.60718489e-02  9.73934010e-02 -1.47071049e-01  1.09352328e-01
  -1.29566744e-01 -2.44348764e-01 -1.42262846e-01  2.66464893e-02
  -3.29800755e-01 -9.74849910e-02 -9.67315119e-03  4.71902490e-02
   8.86500720e-03 -2.30377629e-01  8.93859267e-02 -1.01222962e-01
   8.00231844e-02  1.16682099e-02 -2.20000535e-01 -1.69635396e-02
   5.84222674e-02 -2.08903611e-01  4.34869915e-01 -1.31408483e-01
   6.52001426e-02 -2.55341560e-01 -3.50127697e-01  3.25497150e-01
  -1.33977130e-01 -3.94509614e-01 -3.89729291e-01 -4.11854386e-02
   4.16273214e-02  6.02949457e-03  2.16054872e-01 -1.98112682e-01
  -3.68356295e-02 -3.36220324e-01  1.32060042e-02 -5.26026227e-02
  -1.27985820e-01 -1.01618003e-02  9.16884765e-02  1.57963187e-02
   6.58357367e-02  1.44544929e-01  5.21763265e-02 -3.43509853e-01
  -2.04687595e-01 -2.24013820e-01  1.48613349e-01  2.76878234e-02
  -2.00443387e-01 -2.69435793e-01 -5.83580434e-02  3.15882787e-02
  -4.76425551e-02 -1.48908362e-01 -3.72642457e-01 -2.58257866e-01
  -2.80170798e-01  7.14820018e-03  1.28768966e-01  5.78681985e-03
  -2.10555807e-01 -2.74278313e-01  2.54425257e-01 -2.23638445e-01
  -1.68806732e-01 -1.62181422e-01 -7.79130980e-02  1.08788665e-02
  -2.13788114e-02 -2.86153346e-01  6.32303208e-03 -1.00986965e-01
  -1.25483032e-02 -6.98981211e-02  1.78461578e-02 -1.79454118e-01
   1.34432644e-01 -1.82437971e-01  9.01160762e-03 -3.64764690e-01
  -2.72019595e-01 -6.66136742e-02 -3.70266855e-01  5.54751009e-02
   9.74142700e-02 -1.82082951e-02 -6.90321671e-03 -3.34479958e-01
  -2.61996150e-01 -3.36962417e-02  7.78079107e-02 -1.11762732e-01
   3.60307023e-02 -3.90926600e-02 -9.98205543e-02 -2.70227492e-01
   1.93044335e-01  1.22289523e-01 -8.21365342e-02 -2.70461708e-01
  -2.75624514e-01  5.62302172e-02 -1.80108026e-01 -2.25120842e-01
  -3.71657163e-01 -4.17660862e-01 -1.86367184e-01 -1.65373132e-01
   5.89930154e-02 -1.14156216e-01 -1.90720588e-01 -2.06789032e-01
   1.56446606e-01 -2.72711739e-02 -2.05509529e-01  9.64137837e-02
   7.06789196e-02 -6.53564557e-02  8.49609375e-02 -2.87863072e-02
  -3.57446551e-01 -3.15976962e-02 -1.63685679e-01 -8.53208452e-02
   2.71881729e-01 -1.07570335e-01 -1.88798774e-02 -8.62953663e-02
  -7.13100210e-02 -2.55233377e-01 -1.19068511e-01 -3.48960459e-02
  -3.11114728e-01 -2.67027080e-01 -3.67693841e-01 -2.44905367e-01
  -1.03047453e-01 -3.11574414e-02 -3.74654233e-01 -1.73282519e-01
  -1.37396008e-01 -3.59464556e-01 -2.84809526e-02 -3.20839047e-01
  -1.85017690e-01  1.86159879e-01 -1.04385920e-01  6.71636462e-02
  -7.56338425e-03 -4.30305637e-02 -4.17822339e-02  1.28268957e-01
   1.63225085e-01  1.46686435e-01 -2.02577502e-01  1.33156180e-01
  -2.47851655e-01  2.93291523e-04 -4.58822101e-02 -2.31103167e-01
  -2.48519853e-01  1.51642680e-01  3.03203035e-02 -1.37132376e-01
  -2.03470066e-01  1.46353152e-02 -2.59839922e-01 -6.29856735e-02
   1.40772998e-01 -4.41344380e-02 -7.58240223e-02 -1.10751703e-01
  -7.32287094e-02 -2.75933087e-01 -2.53502876e-01 -1.86757129e-02
  -2.35157922e-01  1.16414434e-04 -2.09668085e-01  3.33162129e-01
  -2.22587474e-02 -1.59610927e-01  1.75283149e-01  2.84692556e-01
   7.57669508e-02  8.44797567e-02 -1.74999103e-01  9.04425513e-03
  -8.53191689e-02 -4.60514948e-02 -2.15503946e-02  9.20096636e-02
  -2.25809410e-01 -6.67948574e-02 -2.39672959e-01  1.29102364e-01
   3.42656905e-03 -2.45406449e-01  2.88369302e-02 -1.89978763e-01
   1.21088229e-01  4.53244112e-02 -2.87960112e-01 -1.31290987e-01
   3.78297046e-02 -9.03381556e-02 -6.03332184e-02 -1.84583157e-01
   8.72119218e-02  8.68547484e-02  1.90399945e-01 -5.51759787e-02
   5.56050837e-02  1.45403307e-03  1.03288040e-01 -3.30963105e-01
   2.53014313e-03 -1.33705139e-01 -1.30418465e-01 -9.11670849e-02
  -1.76160619e-01 -5.22780372e-03  1.25807673e-02 -1.77563861e-01
   1.07191406e-01 -4.02678587e-02  2.19960362e-01 -4.96492572e-02
  -1.08454823e-01 -1.14054615e-02 -9.03012380e-02  9.38149635e-03
   5.47560379e-02 -5.24405912e-02  4.77543399e-02 -1.37215806e-02
  -1.89632297e-01  9.90572721e-02  1.55187115e-01  6.92667440e-02
  -9.16341320e-02 -3.12742710e-01  1.42679289e-01 -2.03138608e-02
   4.76027839e-03 -1.57719791e-01  3.67261976e-01  6.97542503e-02
   1.20370500e-01  1.08698629e-01  5.22543453e-02 -4.73372936e-02
  -4.52596694e-02  5.81759252e-02  5.04548568e-03  8.78848657e-02
   1.19477049e-01  1.88978329e-01  4.36790027e-02 -1.68521255e-01
   5.02862856e-02 -7.58042978e-03  2.64823530e-03  6.22951426e-02
  -9.45736617e-02  3.32827941e-02 -1.17891200e-01  2.35368073e-01
   1.21477194e-01 -1.65267110e-01 -3.44408974e-02  2.08134134e-03
  -1.36934415e-01 -1.10179476e-01  6.89935451e-03  4.02608141e-02
  -1.12220503e-01 -4.48247232e-03  1.35984808e-01  2.13173464e-01
   5.23047596e-02 -9.56845134e-02  1.71438426e-01 -3.38748813e-01
   1.89667009e-02  3.21691595e-02  1.17474392e-01 -7.70711228e-02
  -1.58795029e-01 -2.24164799e-01 -5.69799319e-02  1.32976040e-01
   2.59105321e-02  2.10872293e-02  1.82209030e-01  2.18812466e-01
   3.94465625e-02  6.48168549e-02 -3.20247114e-02  1.61056146e-01
  -7.08947107e-02  4.92715975e-03 -1.53537150e-02 -2.35668179e-02
  -1.90190956e-01 -2.78807908e-01  3.09696328e-03 -2.26125970e-01
   2.14951276e-03 -1.07830584e-01  2.80317277e-01 -3.38649064e-01
  -5.54602705e-02 -1.41699135e-01  1.87847465e-01  1.15352854e-01
  -3.07057761e-02  1.84199542e-01 -3.42156142e-02  2.37488952e-02
   1.84857380e-02 -1.62470162e-01 -1.19366117e-01  1.28711954e-01
  -1.19861908e-01 -1.55203834e-01 -1.99900463e-01  2.32419260e-02
   2.51339488e-02  4.55580801e-02  4.75367205e-03  1.88516695e-02
  -2.19412833e-01 -2.11597130e-01  1.18364215e-01 -1.05243154e-01
  -3.34097221e-02  2.72324923e-02 -9.05134007e-02  1.45638600e-01
  -2.16056406e-01  2.51675714e-02  6.43442646e-02  1.26825392e-01
   1.46898419e-01 -4.05198568e-03  1.21823967e-01 -4.69793081e-02
  -1.93545991e-03  6.06568297e-03 -1.06758550e-01 -2.20508501e-01
   1.25884205e-01  1.28583491e-01  5.09937108e-02  1.25394478e-01
  -2.52574921e-01 -1.40236437e-01 -1.93592489e-01  1.03209876e-01
   1.24647273e-02  1.53979301e-01 -1.80467874e-01  5.43018579e-02
  -1.12372160e-01  1.59889325e-01  1.32836699e-01  9.80856642e-03
  -1.39923811e-01 -1.78545341e-01  3.28072645e-02  2.55158334e-03
   2.00059697e-01 -1.65902257e-01 -2.60003228e-02 -1.35444015e-01
  -1.03349231e-01 -7.23688602e-02 -1.73556283e-01 -2.09124506e-01
   4.98307794e-02 -1.37390986e-01 -2.24864319e-01  1.52507871e-01
   2.81942993e-01 -2.96970922e-03 -1.80474088e-01  6.86190650e-02
   8.55901018e-02  9.10766795e-02  1.38376623e-01  6.02224246e-02
  -1.83851421e-01  9.65418667e-03  1.99549142e-02  1.10838097e-02
  -1.39257193e-01  2.53620505e-01 -2.52925921e-02 -5.76101802e-03
  -2.06545278e-01  5.72423749e-02  1.62961334e-01 -3.70152555e-02
  -2.63512671e-01 -3.57692689e-02 -1.36038780e-01 -2.26736683e-02
  -3.73693891e-02  4.92718555e-02 -1.75560668e-01 -5.38005643e-02
   1.04596339e-01  2.26300880e-01  1.70750663e-01  2.37242654e-02
   3.62861603e-02  1.19370997e-01 -1.83960751e-01 -7.27035031e-02
   1.53744388e-02 -6.29256144e-02  1.39516920e-01 -8.38681161e-02
  -8.65491182e-02  1.73540235e-01  4.96797115e-02 -1.45795628e-01
  -1.41312897e-01 -1.23091660e-01  1.34335294e-01 -3.68289389e-02
   1.08309589e-01  4.63092178e-02 -1.76380172e-01  1.04952969e-01
  -7.83475768e-03 -1.33241490e-01  1.54803023e-01 -1.72048107e-01
   2.04200242e-02 -1.50471285e-01  1.64911687e-01 -1.90950911e-02
  -6.82884129e-03  8.11043754e-02  1.83603153e-01 -1.28501594e-01
  -1.35240942e-01  2.23787174e-01  1.93526655e-01 -1.49130240e-01
  -9.72599164e-02 -2.59125262e-01 -1.14309222e-01 -1.25591457e-01
   5.67049421e-02  4.52351309e-02 -2.32245386e-01 -1.30953804e-01
   8.47125873e-02 -7.21481368e-02 -6.23768494e-02  8.57692212e-02
   1.17825992e-01 -1.60173569e-02 -8.12687736e-04 -3.26289497e-02
   1.60116836e-01  4.79764268e-02 -1.06463268e-01  5.41668870e-02
  -1.18635364e-01 -2.52191350e-02 -3.76766548e-02  1.88284516e-01
   1.27481446e-01 -2.64402889e-02 -1.80297032e-01  9.76701751e-02
   8.98089930e-02  1.41344145e-01  1.95959881e-01 -5.63978963e-02
  -1.13087177e-01 -1.55635849e-01 -8.18935335e-02 -1.08281530e-01
   6.08888753e-02  1.99548632e-01 -2.09202781e-01  9.28664580e-03
  -7.56557733e-02 -1.14993611e-02  9.13630351e-02  9.34762657e-02
  -1.04514621e-01 -7.98716769e-02 -3.20926844e-03  1.08933866e-01
   7.00949281e-02  1.62430659e-01 -9.53906924e-02 -9.00272094e-03
   1.30038008e-01  1.17346838e-01  1.78992167e-01  1.19534740e-02
  -1.19911768e-01 -1.43669948e-01 -6.62598247e-03 -1.96025491e-01
  -1.10386945e-01 -9.69408229e-02 -1.04488499e-01 -8.48651901e-02
   2.20526293e-01 -3.45015200e-03 -9.44236591e-02  1.65517241e-01
  -7.81609342e-02  1.72312791e-03 -1.76241010e-01 -1.24661297e-01
   1.54616430e-01 -1.24417603e-01 -3.40769999e-02 -4.53044334e-03
   7.01859519e-02  1.81718215e-01  1.40344054e-01  1.68152228e-01
  -8.42165798e-02 -2.04506010e-01 -2.08474249e-01 -1.76411062e-01
  -1.15971632e-01  1.63477901e-02  2.19692159e-02 -9.21100900e-02
   1.99791431e-01 -1.21066310e-01 -6.58660233e-02  5.41084185e-02
   1.24733202e-01  1.47991106e-01 -4.27017137e-02 -7.06418604e-02
  -1.86387047e-01  8.05104747e-02 -1.97977230e-01 -1.13313235e-01
  -7.51375854e-02  2.16045782e-01 -8.92183557e-02 -1.49730355e-01
   2.32287031e-02  1.68862015e-01  1.63596585e-01  1.50268972e-01
  -1.05890043e-01 -8.16172659e-02  1.42212853e-01  1.96258143e-01
   3.11534386e-02  1.20736346e-01  7.62706026e-02  1.43485770e-01
  -1.71456113e-01 -3.51664051e-02  9.62109342e-02 -4.25719619e-02
   9.46652517e-02 -4.16764766e-02 -1.57154724e-01  1.80416986e-01
  -1.31014735e-01 -3.80937122e-02 -8.43049660e-02 -1.61749527e-01
   1.26656219e-01 -4.66789454e-02  2.18339458e-01 -1.27930120e-01
  -1.90857708e-01  2.01734185e-01  6.48325086e-02  2.76502538e-02
  -4.13850136e-02  2.07582582e-02  2.04807311e-01  1.80863589e-01
  -3.62488814e-02  6.11071149e-03 -1.43555984e-01  1.43274264e-02
   1.10679172e-01 -1.24022916e-01 -1.68295950e-01  1.53708056e-01
   1.71011552e-01 -1.67725042e-01 -1.75968871e-01 -1.95016973e-02
  -4.63862792e-02  1.51587706e-02  1.47651404e-01 -1.36824131e-01
  -9.94084924e-02 -1.04795910e-01  9.60788578e-02  2.73372103e-02
   1.64489210e-01  1.49716437e-01 -1.38757899e-01 -1.47984654e-01
   1.80006281e-01  5.05664125e-02 -1.19390197e-01  1.14899725e-01
  -1.65397242e-01  1.10081524e-01  8.32988769e-02  2.09186301e-01
  -1.39636591e-01 -1.09641850e-02 -8.41432586e-02  3.75027885e-03
  -5.57928300e-03 -1.38330413e-02 -1.28307939e-01 -4.54272814e-02
  -5.63258678e-02 -2.05894113e-01 -1.67950168e-01  8.75315517e-02
  -1.25276506e-01  1.97541386e-01 -1.17461123e-01  1.20193146e-01
   1.96497694e-01  4.06893194e-02 -1.45183444e-01 -1.05342902e-01
   1.55945167e-01 -8.35234970e-02  1.12217009e-01  7.38493949e-02
   5.17017208e-03 -4.74783964e-02  7.52212405e-02 -2.95764320e-02
   7.80122960e-03 -9.95275304e-02  1.76919669e-01  6.05343059e-02
   1.82313204e-01  1.24271892e-01  1.38909370e-01 -4.40529035e-03]]
gru/gru_cell/recurrent_kernel:0
(240, 720)
[[-2.02360019e-01  8.39796141e-02 -4.65122126e-02 ... -4.11845595e-02
   4.57359783e-05  1.76241249e-03]
 [-8.12790394e-02 -1.03617981e-01  9.05589983e-02 ... -5.72662018e-02
  -9.48284008e-03 -2.25357134e-02]
 [ 1.88960489e-02 -3.63640189e-02 -5.95921911e-02 ... -2.93895863e-02
  -2.03640182e-02  8.20342228e-02]
 ...
 [ 5.62245073e-03  9.08174440e-02 -1.21923223e-01 ...  1.06536085e-02
  -4.24488448e-02  2.09305678e-02]
 [ 4.47025523e-02  1.50941730e-01 -1.63699225e-01 ... -7.37340236e-03
  -2.24070307e-02  3.18607204e-02]
 [ 3.99574786e-02 -7.05326069e-03  2.11786404e-02 ... -5.13639376e-02
   4.00221497e-02  6.87882602e-02]]
gru/gru_cell/bias:0
(2, 720)
[[-0.12969345  0.06345546 -0.04434854 ... -0.02947133 -0.02327514
   0.01427516]
 [-0.12969345  0.06345546 -0.04434854 ... -0.02077234 -0.0247523
   0.01359777]]
gru_1/gru_cell_1/kernel:0
(240, 300)
[[-0.04025047  0.07121961  0.04629583 ... -0.09990648  0.04334101
   0.03593665]
 [-0.11872482 -0.21045597  0.02267647 ...  0.04627138  0.11145699
  -0.08413577]
 [-0.09022661 -0.007358   -0.17833135 ... -0.05286439 -0.05458133
  -0.13833332]
 ...
 [-0.13594854 -0.17138955  0.0694848  ... -0.11397146 -0.08856677
   0.00971717]
 [-0.07030795  0.16197032 -0.12465439 ... -0.03488597  0.07920007
  -0.02502583]
 [-0.00489908 -0.24019054 -0.24394281 ... -0.06200659 -0.11664464
   0.01536364]]
gru_1/gru_cell_1/recurrent_kernel:0
(100, 300)
[[ 0.07011834  0.02174001  0.00148645 ...  0.00894902 -0.02426384
  -0.00107938]
 [ 0.00352804 -0.15400285 -0.00468499 ... -0.02972671  0.0133489
  -0.03196517]
 [-0.04814909  0.15281653  0.10196611 ...  0.04141475  0.02544216
  -0.04058327]
 ...
 [-0.01758845  0.19792554  0.1996301  ... -0.08192545 -0.12467099
   0.00070661]
 [-0.14999804 -0.09913444 -0.01088014 ...  0.06573185 -0.11719385
   0.07110455]
 [ 0.04542459 -0.00274006  0.03265765 ... -0.00626331  0.07003158
   0.03194381]]
gru_1/gru_cell_1/bias:0
(2, 300)
[[-1.54684380e-01  1.28527924e-01  1.19593658e-01 -2.39597246e-01
   1.57931805e-01  7.81933814e-02  4.01818864e-02 -4.25952375e-02
   3.70823499e-03  1.03898138e-01  6.77418038e-02  3.90128605e-02
   1.57774329e-01  1.20589688e-01 -1.24951273e-01 -1.11075556e-02
   1.05161458e-01  6.13626242e-02 -5.62723028e-03  5.51313441e-03
   4.56639901e-02 -1.26639366e-01  1.36625627e-02  3.61020677e-02
   5.34219341e-03  6.75941035e-02 -1.20980464e-01 -4.37939465e-02
   2.17380486e-02 -7.61395842e-02  5.56022525e-02 -1.51630774e-01
   6.35920390e-02  1.12029344e-01  1.17094412e-01  1.42398000e-01
   1.39747694e-01 -2.04594061e-01 -3.42465080e-02  1.87367834e-02
  -3.72775504e-03  1.21223211e-01  2.37343103e-01 -8.42958018e-02
  -3.26426886e-02  1.06571615e-01  1.44055998e-02  1.34675369e-01
  -1.42520413e-01 -1.06785767e-01 -4.29624207e-02  1.13041326e-01
   2.04646587e-01 -1.75851852e-01 -4.06235270e-02 -1.34003416e-01
   8.99688080e-02 -1.44889683e-01  9.13737565e-02 -1.24647863e-01
  -9.07998979e-02  1.26856193e-01 -2.42694584e-03 -2.77443845e-02
  -1.75241336e-01  3.47440034e-01 -5.06769009e-02 -7.09484369e-02
  -1.80522706e-02 -2.39759788e-01 -9.41194966e-02 -1.39469802e-01
  -5.89377694e-02  1.37181401e-01  1.14793098e-02 -1.11046836e-01
   5.11625484e-02  1.43445447e-01 -4.39359508e-02 -6.96050525e-02
  -2.32841983e-03  2.89806332e-02  1.21959418e-01 -2.69415206e-03
  -1.52856745e-02 -1.64829344e-01  3.32035944e-02 -3.11266072e-02
   4.19139005e-02 -4.50745225e-02  2.13361025e-01 -2.98653748e-02
   2.91421358e-02  9.99582261e-02 -1.83875605e-01 -6.13593422e-02
  -1.44563779e-01 -4.53729145e-02  1.44638747e-01  7.06180930e-02
   1.55751873e-02  1.13545218e-02 -1.16755674e-02  1.03859365e-01
  -1.78979952e-02  6.57092705e-02  1.69389267e-02  1.78486444e-02
  -4.77070324e-02  5.55820800e-02 -2.37329323e-02  4.36237548e-03
   2.01472938e-02  2.94248499e-02 -1.37437519e-03 -3.05860862e-02
  -3.70937884e-02  2.40234807e-02  5.68277463e-02  3.14803347e-02
   1.31743364e-02  1.95159167e-02  9.38158191e-04 -1.34018520e-02
  -1.13929641e-02 -1.96660813e-02 -7.15158740e-03  1.48519933e-01
  -1.06665436e-02  6.61990643e-02  2.66759191e-02  1.08439680e-02
  -3.02400650e-03 -2.66555715e-02 -1.80563517e-02  3.75006371e-03
  -3.01430281e-02 -2.47109868e-02  7.96153024e-03 -2.90636513e-02
  -3.23381159e-03 -2.49691661e-02 -4.53275116e-03 -9.92961414e-03
  -1.77510343e-02 -6.16194867e-03  8.69945884e-02 -2.62945704e-02
   2.19131019e-02  9.24466085e-03 -6.73279986e-02  6.55890536e-03
  -7.68464208e-02  2.33893599e-02  7.83955096e-04  8.06880742e-02
  -5.83720207e-02  3.84923480e-02  1.86318066e-03  1.26201600e-01
   1.45368641e-02 -2.69172974e-02 -1.08706737e-02 -1.30047537e-02
   1.26613704e-02  3.45130847e-03  1.00140003e-02  2.43875217e-02
  -7.10220113e-02  4.80468981e-02 -7.95818307e-03  1.16440309e-02
  -2.95520704e-02  6.14497764e-03 -2.38575265e-02 -1.48299048e-02
  -6.76324666e-02 -3.69838290e-02 -7.81601667e-03 -1.49157913e-02
   1.06556602e-01 -2.24217530e-02 -7.99240638e-03 -8.68137926e-03
   3.46721634e-02  4.86686006e-02  7.55288377e-02  1.29053414e-01
   1.13342032e-02 -1.78321172e-02  3.82758095e-04 -2.31261048e-02
  -6.96055451e-03  1.26827857e-03  7.15275109e-02  7.48276338e-02
   1.77543268e-01  1.40037835e-02 -1.58205312e-02 -6.22894056e-02
  -1.17496327e-02 -4.13531438e-03 -1.53935524e-02 -1.89650264e-02
  -2.24272371e-03 -6.93028513e-03 -1.71494670e-02 -2.45412607e-02
  -5.76089416e-03  8.28310288e-03 -7.96036888e-03 -5.15835406e-03
  -1.30674876e-02 -1.13446228e-02 -1.08252512e-02 -9.10363533e-03
  -2.91792606e-03 -1.19731976e-02 -2.47080307e-02 -2.59620212e-02
  -1.94732640e-02 -1.61331203e-02 -1.79786496e-02 -1.29182916e-02
  -5.19070588e-03 -2.52965298e-02 -1.62967630e-02 -2.19043661e-02
  -8.89881980e-03 -1.50225284e-02 -2.25126091e-02 -2.16673017e-02
  -1.63444150e-02  1.23353500e-03 -3.61265521e-03 -1.79415457e-02
  -3.71246855e-03 -9.16967820e-03 -1.65229868e-02 -1.98624227e-02
  -2.16366760e-02 -4.78566065e-03 -9.77200456e-03 -2.15952192e-02
  -6.46918733e-03 -4.52901889e-03 -2.97137629e-03 -7.11679133e-03
  -1.03887618e-02 -1.36153167e-02 -9.01150145e-03 -2.58165244e-02
  -1.63522754e-02 -1.16583100e-02 -2.74016126e-03 -9.74183902e-03
  -8.64440482e-03 -2.46044174e-02 -8.70707072e-03 -3.30925882e-02
  -2.34259274e-02 -1.38509087e-02 -2.37472970e-02 -3.84905282e-03
  -1.96370315e-02 -2.49476871e-03 -2.48235129e-02 -1.87006742e-02
  -6.28586451e-04 -2.60609984e-02 -2.20354609e-02 -2.69970577e-02
  -9.66576952e-03 -6.72661117e-04 -9.05368652e-04 -2.24157386e-02
  -2.00941321e-03 -1.70573429e-03 -1.83865204e-02 -1.81844383e-02
  -3.18740085e-02 -6.51630107e-03 -6.45640306e-03 -2.33546477e-02
  -2.03167852e-02 -2.68760305e-02 -2.18884181e-02  1.26523217e-02
  -1.46044698e-02 -1.01210689e-02 -1.02384901e-02 -5.85947279e-03
  -2.60606818e-02 -6.25212630e-03 -3.00213918e-02 -4.64032125e-03
  -3.59273679e-03 -1.62072945e-02 -6.65682182e-03  6.01335720e-04]
 [-1.54684380e-01  1.28527924e-01  1.19593658e-01 -2.39597246e-01
   1.57931805e-01  7.81933814e-02  4.01818864e-02 -4.25952375e-02
   3.70823499e-03  1.03898138e-01  6.77418038e-02  3.90128605e-02
   1.57774329e-01  1.20589688e-01 -1.24951273e-01 -1.11075556e-02
   1.05161458e-01  6.13626242e-02 -5.62723028e-03  5.51313441e-03
   4.56639901e-02 -1.26639366e-01  1.36625627e-02  3.61020677e-02
   5.34219341e-03  6.75941035e-02 -1.20980464e-01 -4.37939465e-02
   2.17380486e-02 -7.61395842e-02  5.56022525e-02 -1.51630774e-01
   6.35920390e-02  1.12029344e-01  1.17094412e-01  1.42398000e-01
   1.39747694e-01 -2.04594061e-01 -3.42465080e-02  1.87367834e-02
  -3.72775504e-03  1.21223211e-01  2.37343103e-01 -8.42958018e-02
  -3.26426886e-02  1.06571615e-01  1.44055998e-02  1.34675369e-01
  -1.42520413e-01 -1.06785767e-01 -4.29624207e-02  1.13041326e-01
   2.04646587e-01 -1.75851852e-01 -4.06235270e-02 -1.34003416e-01
   8.99688080e-02 -1.44889683e-01  9.13737565e-02 -1.24647863e-01
  -9.07998979e-02  1.26856193e-01 -2.42694584e-03 -2.77443845e-02
  -1.75241336e-01  3.47440034e-01 -5.06769009e-02 -7.09484369e-02
  -1.80522706e-02 -2.39759788e-01 -9.41194966e-02 -1.39469802e-01
  -5.89377694e-02  1.37181401e-01  1.14793098e-02 -1.11046836e-01
   5.11625484e-02  1.43445447e-01 -4.39359508e-02 -6.96050525e-02
  -2.32841983e-03  2.89806332e-02  1.21959418e-01 -2.69415206e-03
  -1.52856745e-02 -1.64829344e-01  3.32035944e-02 -3.11266072e-02
   4.19139005e-02 -4.50745225e-02  2.13361025e-01 -2.98653748e-02
   2.91421358e-02  9.99582261e-02 -1.83875605e-01 -6.13593422e-02
  -1.44563779e-01 -4.53729145e-02  1.44638747e-01  7.06180930e-02
   1.55751873e-02  1.13545218e-02 -1.16755674e-02  1.03859365e-01
  -1.78979952e-02  6.57092705e-02  1.69389267e-02  1.78486444e-02
  -4.77070324e-02  5.55820800e-02 -2.37329323e-02  4.36237548e-03
   2.01472938e-02  2.94248499e-02 -1.37437519e-03 -3.05860862e-02
  -3.70937884e-02  2.40234807e-02  5.68277463e-02  3.14803347e-02
   1.31743364e-02  1.95159167e-02  9.38158191e-04 -1.34018520e-02
  -1.13929641e-02 -1.96660813e-02 -7.15158740e-03  1.48519933e-01
  -1.06665436e-02  6.61990643e-02  2.66759191e-02  1.08439680e-02
  -3.02400650e-03 -2.66555715e-02 -1.80563517e-02  3.75006371e-03
  -3.01430281e-02 -2.47109868e-02  7.96153024e-03 -2.90636513e-02
  -3.23381159e-03 -2.49691661e-02 -4.53275116e-03 -9.92961414e-03
  -1.77510343e-02 -6.16194867e-03  8.69945884e-02 -2.62945704e-02
   2.19131019e-02  9.24466085e-03 -6.73279986e-02  6.55890536e-03
  -7.68464208e-02  2.33893599e-02  7.83955096e-04  8.06880742e-02
  -5.83720207e-02  3.84923480e-02  1.86318066e-03  1.26201600e-01
   1.45368641e-02 -2.69172974e-02 -1.08706737e-02 -1.30047537e-02
   1.26613704e-02  3.45130847e-03  1.00140003e-02  2.43875217e-02
  -7.10220113e-02  4.80468981e-02 -7.95818307e-03  1.16440309e-02
  -2.95520704e-02  6.14497764e-03 -2.38575265e-02 -1.48299048e-02
  -6.76324666e-02 -3.69838290e-02 -7.81601667e-03 -1.49157913e-02
   1.06556602e-01 -2.24217530e-02 -7.99240638e-03 -8.68137926e-03
   3.46721634e-02  4.86686006e-02  7.55288377e-02  1.29053414e-01
   1.13342032e-02 -1.78321172e-02  3.82758095e-04 -2.31261048e-02
  -6.96055451e-03  1.26827857e-03  7.15275109e-02  7.48276338e-02
   1.77543268e-01  1.40037835e-02 -1.58205312e-02 -6.22894056e-02
  -1.15454746e-02 -3.18831392e-03 -5.24501503e-03  3.05969105e-03
  -3.07524018e-03 -1.22770499e-02 -2.19656527e-02 -2.79016998e-02
  -1.04370120e-04 -1.04266815e-02  1.81655232e-02 -1.99434273e-02
  -1.57643743e-02 -1.84764694e-02 -3.84160900e-04  6.30301714e-04
  -3.75442556e-03 -1.31425811e-02 -2.64560375e-02 -2.76694018e-02
   1.23060131e-02 -1.71117857e-02 -1.75258499e-02  3.20095150e-03
  -5.02019934e-03 -2.31537987e-02 -3.89507832e-03 -2.95022372e-02
   3.47350317e-04 -1.76920798e-02 -2.50157975e-02 -2.59117149e-02
  -1.47508392e-02  8.71645287e-04 -5.63478097e-03 -1.27099399e-02
  -3.36061185e-03  5.02752187e-03 -1.80428009e-02 -2.43852809e-02
  -2.09869724e-02 -6.51233783e-03 -9.33391694e-03 -2.26809029e-02
  -6.86240289e-03 -1.52583641e-03  9.81885474e-03 -1.82512880e-03
   1.17776776e-03 -1.61870569e-02  2.16917088e-03 -2.52549537e-02
  -1.48402033e-02  1.64160226e-03  4.35055653e-03 -1.78680755e-02
  -4.43491666e-03 -2.37091314e-02 -9.75093339e-03 -1.91443544e-02
  -2.09807586e-02 -1.43186068e-02 -2.23524887e-02  3.23852920e-03
  -1.22189680e-02 -3.06191342e-03 -2.34987102e-02 -2.37931665e-02
  -9.23122803e-04 -2.99277026e-02 -1.02781653e-02 -3.54591496e-02
   6.15634897e-04  2.00453540e-03 -1.47540210e-04 -2.99427435e-02
   6.86748745e-03  3.15601076e-03 -1.93386599e-02 -1.47641003e-02
   6.11767918e-03  3.63031722e-04 -3.87719111e-03 -2.47516446e-02
  -1.72407888e-02 -1.46783022e-02 -1.88170783e-02 -1.45888356e-02
  -1.83886383e-02  4.47646249e-03 -1.20526031e-02  2.16682791e-03
   5.20030297e-02 -5.85293677e-03 -2.65578534e-02  1.21430838e-02
  -1.55626901e-03  1.24921808e-02 -9.82026476e-03  1.10506976e-03]]
dense/kernel:0
(100, 8)
[[-1.04428142e-01 -1.05751656e-01 -1.35942429e-01 -1.49867281e-01
  -1.75665572e-01 -1.54712781e-01 -1.40295982e-01 -1.38758719e-01]
 [-7.14490637e-02 -4.99576814e-02 -6.43356368e-02 -6.57742843e-02
  -7.77888224e-02 -4.88445982e-02 -3.68190371e-02 -1.75599623e-02]
 [ 8.94848481e-02  5.72320111e-02  4.57290448e-02  1.01580009e-01
   1.02267499e-04  1.41766086e-01  6.58864155e-02  1.40378803e-01]
 [-1.21050343e-01  7.28845298e-02 -2.00421527e-01 -2.15612039e-01
  -9.54284146e-02 -1.08311146e-01 -3.60335819e-02 -1.89400867e-01]
 [-1.05130285e-01 -6.32349029e-02 -7.40069896e-02 -1.13069557e-01
  -1.56782016e-01 -8.00571069e-02 -1.14871003e-01 -3.69511060e-02]
 [-1.58819035e-01 -1.57022521e-01 -1.90472100e-02 -6.68564141e-02
  -1.20082952e-01 -6.16731681e-03 -6.90377057e-02  2.15661079e-02]
 [ 1.25434371e-02  9.75046214e-03  1.72038510e-01  1.53865650e-01
   1.26308575e-01 -8.30988027e-03  4.95588146e-02 -5.00763319e-02]
 [ 9.17610973e-02  1.04703195e-01  6.58322265e-03  1.46694869e-01
   1.22635588e-01  8.72731507e-02  9.63421613e-02  3.69791724e-02]
 [-1.01044625e-01 -1.84426516e-01 -1.41975626e-01 -1.90676421e-01
  -1.21583074e-01 -1.73828542e-01 -1.10582486e-01 -1.46051496e-01]
 [ 5.18057533e-02 -1.45616695e-01 -2.34779075e-01  8.69953260e-03
  -9.68572423e-02 -1.25309736e-01  1.14785679e-01  1.47747006e-02]
 [-1.10150665e-01  1.52142104e-02 -7.35116825e-02 -1.74633004e-02
  -8.38173404e-02 -9.03391615e-02 -2.09918529e-01 -1.66220486e-01]
 [-1.80435807e-01 -6.16731942e-02  9.93535621e-04 -7.72871077e-02
  -6.66819587e-02 -1.32542610e-01 -2.03999028e-01 -2.02697814e-01]
 [ 5.74289411e-02  7.49932528e-02 -4.52343151e-02  1.01815775e-01
   1.17605321e-01  5.77395596e-02  1.26962766e-01  1.64948896e-01]
 [-2.90127769e-02  4.74507362e-02  3.60469520e-02  1.37837186e-01
   1.73715562e-01  4.30003889e-02 -1.20065559e-03  1.12501085e-01]
 [-1.25047237e-01 -1.65450498e-01 -1.98078990e-01 -6.61365911e-02
  -8.90830308e-02 -1.25611052e-01 -4.88751717e-02 -1.69730425e-01]
 [-1.41259864e-01 -1.27414882e-01 -1.46357179e-01 -1.89019769e-01
  -2.13251814e-01 -1.76480487e-01 -9.61724520e-02 -1.07178800e-01]
 [ 7.95709994e-03 -9.13571343e-02 -1.29603669e-01 -1.34134874e-01
  -1.25112444e-01 -1.68449685e-01 -6.83669969e-02 -8.29799399e-02]
 [-1.91194806e-02  1.05345644e-01  1.75900325e-01  1.68635935e-01
   1.78397253e-01  7.30255619e-02  1.17309086e-01 -7.72551447e-02]
 [-1.62894920e-01 -1.04368143e-01 -2.49858964e-02 -4.57999185e-02
  -5.02075963e-02 -7.50515461e-02 -4.75085415e-02 -7.53428414e-02]
 [ 1.55829594e-01  1.36295363e-01  5.16219623e-02  1.30182132e-01
   1.44477516e-01  3.07807289e-02  9.09190103e-02  1.01410888e-01]
 [-1.95850804e-01 -2.01749429e-01  2.09694589e-03 -6.17415160e-02
  -8.07901546e-02 -4.45024148e-02  6.56630471e-03 -1.38505906e-01]
 [ 6.52197599e-02  6.52299151e-02  1.43995985e-01  1.37041137e-01
   6.31301254e-02  5.75491274e-03  7.39841163e-02  3.61901824e-03]
 [ 1.76219136e-01  4.49348148e-03  1.33435145e-01  3.67510552e-03
   8.45965669e-02  8.36806446e-02  1.01688333e-01  5.43366931e-02]
 [-5.57021387e-02 -6.13775738e-02 -1.39073089e-01 -1.97382942e-01
  -4.71225902e-02 -1.82642087e-01 -1.90955803e-01 -1.26084119e-01]
 [ 2.67626159e-02 -1.28687486e-01 -1.68185309e-01 -2.34947965e-01
  -2.21409887e-01 -2.05821589e-01 -1.61970872e-02 -1.33216763e-02]
 [ 3.58968824e-02  1.77454591e-01  1.36564314e-01  1.75332904e-01
   2.24432889e-02 -4.47034538e-02  1.75359428e-01  1.16896890e-01]
 [-2.14287579e-01 -1.40117630e-01 -2.54724860e-01 -8.25388730e-02
  -8.95817298e-03 -9.11555961e-02 -2.19956040e-01 -2.54534960e-01]
 [-1.92102537e-01 -1.33537352e-01 -4.85800616e-02 -4.29446660e-02
  -2.73363125e-02 -4.60075736e-02 -8.36577713e-02 -3.10313720e-02]
 [-5.05512096e-02 -3.72271165e-02 -1.36905015e-01 -1.05849639e-01
  -1.56962991e-01 -1.67517006e-01 -1.59417257e-01 -2.88054328e-02]
 [-5.46441562e-02 -1.55822486e-01 -2.52723098e-01 -6.78155944e-02
   2.14901809e-02  2.85691302e-03 -2.88747139e-02 -1.44064024e-01]
 [ 1.33591324e-01  5.52540310e-02  1.04706913e-01 -4.98460568e-02
   1.12384260e-01  1.69967964e-01  1.91641808e-01  7.37967715e-02]
 [ 1.77649140e-01  1.58202931e-01  1.06599271e-01  1.93669423e-02
   1.46296024e-01  1.47162722e-02  1.88762352e-01  2.08835661e-01]
 [ 6.04334846e-02  4.75018658e-02  9.68911573e-02  6.72967359e-02
   1.23461932e-01  7.01067969e-02  1.42772108e-01  1.16479238e-02]
 [-1.53060555e-01 -1.86692446e-01 -1.26360103e-01 -1.58081546e-01
  -1.45575270e-01 -1.66586667e-01 -1.18449502e-01 -4.04632874e-02]
 [-1.20347627e-01 -9.52833742e-02 -1.47891715e-01 -5.16104437e-02
  -8.64632651e-02 -1.23193443e-01 -1.23677187e-01 -2.83216611e-02]
 [ 4.00649570e-02  1.01778537e-01  1.20598212e-01  2.86231097e-02
   1.11805126e-01  1.16344348e-01  4.93953414e-02  1.04718760e-01]
 [-1.06876440e-01 -1.25663236e-01 -7.68896639e-02 -1.43476650e-01
  -1.28562644e-01 -8.22605640e-02 -1.08599141e-01 -6.03708439e-02]
 [-1.49294093e-01 -1.72732264e-01 -8.84455144e-02 -1.51558802e-01
  -7.06994012e-02 -2.68979762e-02 -9.91101563e-02 -1.48249418e-01]
 [ 1.18531995e-01  9.72325578e-02  8.86440948e-02  3.67222913e-02
   7.92152435e-02  4.24351245e-02  4.94802408e-02  8.50726590e-02]
 [ 1.11906447e-01  1.06713861e-01  1.24916539e-01  6.47711083e-02
  -1.39087327e-02 -1.38740595e-02  6.64318204e-02  5.23077957e-02]
 [ 1.12908162e-01  1.08831957e-01  1.40435323e-01  1.06740043e-01
   9.00395289e-02  1.23361774e-01  1.28646731e-01  2.23039836e-02]
 [-1.10437192e-01 -1.04510561e-01 -1.59125969e-01 -1.54198721e-01
  -1.45913526e-01 -1.12979174e-01 -7.51925334e-02 -1.88406035e-02]
 [ 6.58818632e-02  7.43566751e-02  5.99346822e-05  1.97497383e-02
  -1.08702732e-02  2.56594755e-02  8.27597082e-02  1.47095338e-01]
 [ 8.06188136e-02  1.35016710e-01  1.52942494e-01  1.58901647e-01
   1.62602693e-01  9.62853581e-02 -1.26135489e-03  1.30906294e-03]
 [-1.25428170e-01 -1.17227711e-01 -8.75017270e-02 -1.48817167e-01
  -7.75019675e-02 -2.62254067e-02 -5.21477312e-02 -9.77212936e-02]
 [-1.63017362e-01 -8.66020024e-02 -1.16993234e-01 -1.27540201e-01
  -4.15347107e-02 -1.75908387e-01 -1.63832039e-01 -1.17971808e-01]
 [-7.44899437e-02 -1.53839746e-02 -1.24264043e-05 -6.64735734e-02
   7.08121061e-02  8.82083029e-02 -6.52896985e-02 -9.46775153e-02]
 [-7.36735463e-02 -1.45760328e-01 -8.92600939e-02 -1.15475111e-01
  -1.11988053e-01 -1.35018364e-01 -1.11102059e-01 -1.30201310e-01]
 [-7.45833814e-02 -8.21217448e-02 -1.77190691e-01 -1.85740098e-01
  -8.78837556e-02 -6.58049658e-02 -5.81874587e-02  2.38045538e-03]
 [ 6.22408278e-02 -2.23399438e-02  9.11550969e-02  1.46003425e-01
   1.43119153e-02  1.72357157e-01  1.28473431e-01  1.59064382e-01]
 [-1.48498356e-01 -1.22894228e-01 -8.33387375e-02 -8.04591551e-02
  -9.78877246e-02 -8.15033987e-02 -8.71179998e-02 -1.48993254e-01]
 [ 1.48417801e-01  1.79142609e-01  1.39720649e-01  3.64124775e-02
   1.47128794e-02  1.70444846e-01  2.43208818e-02  1.72356844e-01]
 [ 6.02235980e-02  9.69955996e-02  4.38085683e-02  1.12997361e-01
   1.13446213e-01  9.82868001e-02 -1.77598260e-02  6.45617470e-02]
 [-1.71878427e-01 -1.32782280e-01 -1.04027592e-01 -9.08409804e-02
  -1.02860510e-01  3.58540677e-02 -7.89513737e-02 -1.25598326e-01]
 [-5.10906465e-02  3.92622501e-02 -3.07925679e-02 -1.39294907e-01
  -2.31914893e-01 -7.10804462e-02 -9.63562578e-02 -1.05142288e-01]
 [-1.58875450e-01 -2.39701524e-01 -2.00372428e-01 -7.78093785e-02
  -2.27307882e-02  2.51477826e-02 -1.95214406e-01 -1.15992658e-01]
 [-1.19874150e-01 -1.08744711e-01 -7.77927712e-02 -9.20699537e-02
  -3.03755812e-02 -1.12099074e-01 -6.85215592e-02 -7.17661232e-02]
 [ 1.36191070e-01  1.72976345e-01  1.80698618e-01  1.95921406e-01
   3.52352671e-02  6.39205873e-02  1.07487151e-02  1.31592512e-01]
 [ 3.78817171e-02  6.66404441e-02  6.50451332e-02  2.03163549e-02
  -1.08411778e-02  8.09078962e-02  1.66917667e-01  1.23548321e-01]
 [ 1.33656472e-01  5.78951016e-02  2.00102329e-01  7.57687315e-02
  -1.42630905e-01 -4.33057696e-02  9.88980234e-02  2.13323347e-02]
 [ 1.63976729e-01  1.44205883e-01  2.12541655e-01  1.68385834e-01
   4.80513945e-02  4.76618260e-02  7.37562915e-03 -7.24645257e-02]
 [ 1.03413150e-01  1.30163521e-01 -1.90032013e-02  3.93796675e-02
   2.84560919e-02  1.30878970e-01  5.49304821e-02  1.19262047e-01]
 [ 1.40251696e-01  1.20254740e-01  1.02483198e-01  1.36111900e-01
   1.38698980e-01  3.74360941e-02  1.40558258e-01  1.30707011e-01]
 [-4.69333082e-02 -9.72531810e-02 -1.05781294e-01 -6.25735894e-02
  -1.10542826e-01 -1.25952840e-01 -2.35347331e-01 -1.93045810e-01]
 [ 1.42710537e-01  1.98017210e-01  6.95065856e-02  1.28675371e-01
   5.71324257e-03  1.18496522e-01  9.28575695e-02  4.70323972e-02]
 [-1.17037464e-02 -2.79310960e-02 -6.76271543e-02 -8.93400833e-02
  -1.09764248e-01 -5.48026748e-02 -9.01780874e-02 -8.94628093e-02]
 [ 1.27662867e-01  2.14624062e-01  2.06681922e-01  4.32210639e-02
   8.08964446e-02  4.76710685e-02  1.11504178e-02 -7.26103187e-02]
 [ 3.73395383e-02  1.31232858e-01  1.19490251e-01  1.18044369e-01
   6.39105141e-02  1.23345748e-01  2.78408285e-02  4.63195927e-02]
 [-1.38364121e-01 -9.90603939e-02 -8.97798240e-02 -9.82643664e-02
  -5.32790422e-02 -4.95731309e-02 -8.44612867e-02 -4.74801958e-02]
 [ 8.96585807e-02  8.42845440e-02  1.83272094e-01  5.39421625e-02
   1.72382176e-01  7.91244730e-02 -3.14085558e-02  1.53418839e-01]
 [ 4.46612686e-02 -2.11614817e-02  1.52475417e-01  1.76013470e-01
   6.76032379e-02  1.65141702e-01 -8.56895968e-02  7.98286870e-02]
 [ 3.08419671e-02  1.58593953e-01  1.51984468e-01  7.70351589e-02
   1.50796577e-01  6.97350353e-02  5.31537421e-02  1.71246722e-01]
 [-1.13956027e-01 -1.91455677e-01 -1.85761794e-01 -2.07914263e-01
  -4.08800431e-02 -1.19243644e-01 -1.58142269e-01 -1.36681095e-01]
 [-1.37941614e-01 -1.38977766e-01 -1.12828739e-01 -4.72507924e-02
  -4.55974974e-02 -8.20909888e-02 -8.24080408e-02 -3.34793702e-02]
 [-1.01651035e-01 -1.79968327e-02 -5.16857170e-02 -1.28915533e-01
  -1.55701131e-01 -1.18290931e-01 -8.46451595e-02 -5.80953956e-02]
 [ 7.13885203e-02  8.94158781e-02  8.07799399e-02  1.30594909e-01
   8.13498497e-02  1.11900240e-01  1.39446810e-01  1.29557103e-01]
 [-5.55527285e-02 -1.40977398e-01 -1.01927407e-01 -1.86839491e-01
  -1.38453215e-01 -6.58902749e-02 -1.52590454e-01 -1.23850517e-01]
 [-1.39954463e-01 -1.64974704e-01 -1.92773476e-01 -1.67855442e-01
  -1.62594363e-01 -1.87634692e-01 -1.51738539e-01 -1.38811916e-01]
 [ 1.53298303e-01  4.23215739e-02  1.24386393e-01  6.41615316e-03
   4.36321273e-02  1.34826556e-01  1.40259743e-01  1.51898727e-01]
 [ 1.18565984e-01  2.32857615e-02  5.23953103e-02  4.88192812e-02
   9.06146467e-02  2.47122236e-02  8.33357591e-03  8.05384889e-02]
 [ 2.22897261e-01  1.35367736e-01 -1.14045680e-01 -1.01343758e-01
  -4.50560153e-02  7.24709630e-02  2.53333971e-02 -4.54595685e-03]
 [-2.00046286e-01 -2.06985503e-01 -1.47266135e-01 -5.43831699e-02
  -1.55165941e-01 -1.70244053e-01 -1.73621178e-01 -9.74323079e-02]
 [-8.07614550e-02 -5.52946962e-02 -3.52702700e-02 -7.67538995e-02
  -1.53605953e-01 -9.09938514e-02 -5.92613518e-02 -3.05523053e-02]
 [ 1.34811640e-01  1.62312984e-01  9.08765197e-02  1.36027306e-01
  -1.19069507e-02  1.57267913e-01  7.08816797e-02  9.48237702e-02]
 [ 4.63230126e-02  8.99499357e-02  8.62417743e-02  2.49552056e-02
   1.18402883e-01  1.57251701e-01 -6.34055817e-04  1.57269627e-01]
 [ 1.55565992e-01  1.75937787e-01  8.34032893e-02  7.00213760e-02
   4.50823233e-02  3.61737944e-02  9.57479179e-02 -8.79642554e-03]
 [ 1.11685321e-01  1.17706724e-01  1.14605688e-01  1.29136354e-01
  -8.93243402e-02  1.06393784e-01  1.30666554e-01 -1.40427053e-01]
 [-1.35860547e-01 -1.58095449e-01 -3.50080058e-02  4.36716480e-03
  -3.15107405e-02 -4.33964394e-02 -8.73346925e-02 -7.92203620e-02]
 [-4.03496511e-02 -3.75523977e-02 -2.44839266e-02  1.07265413e-01
   1.79673642e-01  9.66138393e-02  1.86999917e-01  2.27303073e-01]
 [-1.70462862e-01 -1.82200536e-01 -1.47235781e-01 -4.93922010e-02
  -4.11906689e-02 -1.32373393e-01  7.91149121e-03 -1.03228733e-01]
 [ 7.20334798e-02  9.36646089e-02  4.25368510e-02  6.24578893e-02
   9.28553790e-02  3.16178575e-02  8.74178950e-03  4.04274128e-02]
 [-1.43763840e-01 -1.83429569e-01 -1.94231108e-01 -1.00499623e-01
  -1.89952582e-01 -6.58368021e-02 -1.07494630e-01 -1.72793373e-01]
 [ 5.32939024e-02  6.00811187e-03  1.03505470e-01  1.76325187e-01
  -1.05299525e-01 -1.95351735e-01 -2.22367346e-01 -5.86009324e-02]
 [-8.67049471e-02 -6.48166686e-02 -1.09415285e-01 -1.20966464e-01
  -9.66361761e-02 -1.65851399e-01 -1.31953821e-01 -1.02701120e-01]
 [ 1.22411788e-01 -2.66300719e-02  7.99240395e-02  1.69696361e-01
   1.19462140e-01  6.60185590e-02  1.01552621e-01  1.22425206e-01]
 [ 1.08916298e-01  3.68783101e-02  8.43900368e-02  3.79159190e-02
   6.82494417e-02 -1.33026898e-01 -1.48117691e-01 -1.95556417e-01]
 [-3.19344014e-01 -6.22424148e-02  2.83181965e-02 -1.24348119e-01
  -4.83264998e-02 -9.10890475e-02  4.36937660e-02 -3.80914621e-02]
 [ 1.27054811e-01  6.32759854e-02  6.83190599e-02  1.46753043e-01
   9.59364101e-02 -2.25269403e-02 -3.54811512e-02 -5.07337712e-02]
 [-1.90301716e-01 -7.34528601e-02 -3.83312069e-02 -3.89393121e-02
   4.70307795e-03 -8.03184286e-02 -1.71380460e-01 -1.56681612e-01]
 [-6.74750656e-02 -1.24663532e-01 -1.39093325e-01 -1.43927053e-01
  -1.39759511e-01 -4.72135805e-02 -7.62523189e-02 -6.06372915e-02]]
dense/bias:0
(8,)
[0.11867489 0.11436444 0.10197303 0.09643238 0.1074242  0.12130588
 0.12692456 0.12462873]
